<?xml version="1.0"?>
<opencv_storage>
<stage1>
  <maxWeakCount>8</maxWeakCount>
  <stageThreshold>-4.0607315301895142e-01</stageThreshold>
  <weakClassifiers>
    <_>
      <internalNodes>
        0 -1 93031 4.3497942388057709e-03</internalNodes>
      <leafValues>
        -5.6810629367828369e-01 8.5929650068283081e-01</leafValues></_>
    <_>
      <internalNodes>
        0 -1 85394 2.1568401716649532e-03</internalNodes>
      <leafValues>
        -6.2804657220840454e-01 7.7698814868927002e-01</leafValues></_>
    <_>
      <internalNodes>
        0 -1 62206 -5.2090603858232498e-03</internalNodes>
      <leafValues>
        9.2884296178817749e-01 -3.8118666410446167e-01</leafValues></_>
    <_>
      <internalNodes>
        0 -1 98823 3.8652513176202774e-03</internalNodes>
      <leafValues>
        -5.0635266304016113e-01 9.8883581161499023e-01</leafValues></_>
    <_>
      <internalNodes>
        0 -1 39647 -5.5015865713357925e-02</internalNodes>
      <leafValues>
        9.8634523153305054e-01 -3.1672814488410950e-01</leafValues></_>
    <_>
      <internalNodes>
        0 -1 9856 -3.2843712688190863e-05</internalNodes>
      <leafValues>
        -1. 5.4150956869125366e-01</leafValues></_>
    <_>
      <internalNodes>
        0 -1 104374 -2.7315719053149223e-02</internalNodes>
      <leafValues>
        9.6474945545196533e-01 -5.3588491678237915e-01</leafValues></_>
    <_>
      <internalNodes>
        0 -1 9856 2.8970716812182218e-05</internalNodes>
      <leafValues>
        6.7869293689727783e-01 -1.</leafValues></_></weakClassifiers></stage1>
</opencv_storage>
